<?xml version="1.0"?>
<opencv_storage>
<cascade>
  <stageType>BOOST</stageType>
  <featureType>LBP</featureType>
  <height>16</height>
  <width>35</width>
  <stageParams>
    <boostType>GAB</boostType>
    <minHitRate>9.9500000476837158e-01</minHitRate>
    <maxFalseAlarm>4.4999998807907104e-01</maxFalseAlarm>
    <weightTrimRate>9.4999999999999996e-01</weightTrimRate>
    <maxDepth>1</maxDepth>
    <maxWeakCount>100</maxWeakCount></stageParams>
  <featureParams>
    <maxCatCount>256</maxCatCount>
    <featSize>1</featSize></featureParams>
  <stageNum>3</stageNum>
  <stages>
    <!-- stage 0 -->
    <_>
      <maxWeakCount>2</maxWeakCount>
      <stageThreshold>-7.3665595054626465e-01</stageThreshold>
      <weakClassifiers>
        <_>
          <internalNodes>
            0 -1 2 -80282113 -2240037 487839231 -10546979 -660014593
            -6569830 -1148600321 -73401925</internalNodes>
          <leafValues>
            -9.9872201681137085e-01 2.5714287161827087e-01</leafValues></_>
        <_>
          <internalNodes>
            0 -1 5 -174851073 -10792739 -720118785 -14708361 -108794881
            -72711429 -1349518337 -1073742849</internalNodes>
          <leafValues>
            -9.9379879236221313e-01 6.0960555076599121e-01</leafValues></_></weakClassifiers></_>
    <!-- stage 1 -->
    <_>
      <maxWeakCount>3</maxWeakCount>
      <stageThreshold>-1.4520756006240845e+00</stageThreshold>
      <weakClassifiers>
        <_>
          <internalNodes>
            0 -1 0 -4097 -111676513 -1010704161 -2108785 -209725541
            -758668021 -112473089 -1</internalNodes>
          <leafValues>
            -9.9660080671310425e-01 4.7826087474822998e-01</leafValues></_>
        <_>
          <internalNodes>
            0 -1 4 -136855553 -2230273 -46795777 -1537 -69207041
            -6561797 -2097153 -1025</internalNodes>
          <leafValues>
            -9.9191516637802124e-01 5.2896487712860107e-01</leafValues></_>
        <_>
          <internalNodes>
            0 -1 3 -2113537 -2049 -548201985 -18561 -71303169
            -1074008641 -4194305 -1025</internalNodes>
          <leafValues>
            -9.9325519800186157e-01 5.3644037246704102e-01</leafValues></_></weakClassifiers></_>
    <!-- stage 2 -->
    <_>
      <maxWeakCount>3</maxWeakCount>
      <stageThreshold>-1.6006863117218018e+00</stageThreshold>
      <weakClassifiers>
        <_>
          <internalNodes>
            0 -1 1 -1 -134218241 -62142561 -3671041 -573047809 -76551073
            -528497 -1</internalNodes>
          <leafValues>
            -9.9322032928466797e-01 8.0000001192092896e-01</leafValues></_>
        <_>
          <internalNodes>
            0 -1 7 -65 -2107457 -550511342 -19931137 -1055761 -41424733
            -39846547 -2049</internalNodes>
          <leafValues>
            -9.9531841278076172e-01 3.8323596119880676e-01</leafValues></_>
        <_>
          <internalNodes>
            0 -1 6 -1 -35651617 -244318209 -35654689 -16418 -84285245
            -100663314 -273</internalNodes>
          <leafValues>
            -9.9070197343826294e-01 5.9146898984909058e-01</leafValues></_></weakClassifiers></_></stages>
  <features>
    <_>
      <rect>
        0 0 1 5</rect></_>
    <_>
      <rect>
        0 1 1 4</rect></_>
    <_>
      <rect>
        0 13 6 1</rect></_>
    <_>
      <rect>
        4 5 10 2</rect></_>
    <_>
      <rect>
        4 7 6 1</rect></_>
    <_>
      <rect>
        11 9 8 2</rect></_>
    <_>
      <rect>
        20 8 1 2</rect></_>
    <_>
      <rect>
        32 2 1 4</rect></_></features></cascade>
</opencv_storage>
